{
  "penguin_trait_vs_placebo": {
    "condition": "penguin_trait_vs_placebo",
    "layer": 5,
    "accuracy": 0.9411764705882353,
    "null_accuracy": 0.5294117647058824,
    "significance_ratio": 1.7777777777777777,
    "probe_weights": [
      -0.03637246964188319,
      0.018719655108191895,
      -0.03890279177168253,
      0.05162692373534188,
      -0.03867419767688037,
      0.06435062900273247,
      -0.04139630761517768,
      -0.008256080060184535,
      -0.017174748170423644,
      0.04228974954647125,
      -0.07251719274427934,
      -0.0011918307007319935,
      0.07447492667124551,
      0.08079707844512592,
      0.07333040316305531,
      -0.02317766990593089,
      0.018597563039565855,
      0.00940058725452256,
      0.007625201605101119,
      0.11310054157582564,
      0.0018169700692719309,
      0.013219470931094603,
      0.0018650612124189458,
      0.03557527137818419,
      -0.07972350992846114,
      0.09304865697844687,
      0.05177770026095344,
      -0.047573256491642284,
      -0.01137610298654464,
      0.027640236183237854,
      -0.028784105888764507,
      0.004771429848719532,
      -0.0017374490431894662,
      -0.07586356071693948,
      -0.04170194238821813,
      0.020217567394042936,
      0.0021456016596294054,
      0.028483845404793325,
      0.03867656466407719,
      -0.0769198248431876,
      -0.02605250075342506,
      -0.10503562660082937,
      -0.0020075206790189865,
      0.023948004465645812,
      0.016243432577561705,
      0.02025927433026784,
      0.03565878837643647,
      0.006782157280571754,
      0.015992076693992142,
      -0.09011937880339556,
      -0.029781262629005916,
      -0.00414093127815101,
      -0.02648009752294982,
      -0.020541804261214616,
      -0.05969541805450676,
      0.053522490123079115,
      0.05489112265337867,
      0.014097500513107642,
      0.033041971812261144,
      -0.009566011828753008,
      0.003735425147489842,
      -0.03441332887430243,
      -0.035024518853192355,
      0.0214843954568915,
      -0.10538859411710587,
      0.1398646557391562,
      -0.08645833123384977,
      -0.01690083003271841,
      -0.00010881803440668085,
      0.021838623529607085,
      0.053123999808447064,
      -0.08757571010785019,
      -0.01801261988758533,
      -0.045405974342304097,
      -0.0017359043683977224,
      -0.014526998212071927,
      0.004068627965567812,
      -0.014501808515215943,
      0.006093996496885065,
      -0.0017393859336237165,
      -0.06736573338845234,
      0.09539678148875669,
      -3.8278153594645915e-05,
      -0.006484038243359815,
      -0.03475227320031008,
      -0.13030791598618874,
      0.07249968873374903,
      0.06513996905024942,
      0.004842259004167937,
      -0.006556440266019518,
      0.09818337922075407,
      0.059796706019619617,
      0.062049712801878876,
      0.0186528501207291,
      -0.005839213898626694,
      -0.008824481090169754,
      -0.0069689546735446075,
      -0.02121074827628903,
      -0.0533989191610666,
      -0.021209647025336512,
      0.007063300118872853,
      0.015649065257018226,
      -0.02137586886875961,
      0.040643219082122234,
      0.010187185810607093,
      -0.024164463747440586,
      -0.0601199298619394,
      0.10019092047155853,
      0.04110441078681786,
      -0.008214840471309909,
      0.02510574874004712,
      -0.0013505550572126212,
      0.04074361763119421,
      0.0359649110445476,
      -0.07130248967146668,
      0.019665080565918456,
      -0.032389620597747935,
      -0.10412962597533658,
      0.02736469334863729,
      -0.013835452605413903,
      -0.03682719652847745,
      0.017649013497876388,
      0.037863312364771105,
      0.010769621606094359,
      -0.14701937206175522,
      0.011904640268117182,
      0.018826887103040993,
      -0.01394316284672753,
      0.05633186972082061,
      0.009420946769666634,
      -0.06469043811326658,
      0.004001810768047143,
      0.013158601482047345,
      0.024794505580245887,
      -0.01888288097403828,
      -0.028175677173696363,
      -0.10041701458547807,
      -0.09197236651057306,
      0.10531766026283712,
      -0.03330883281526899,
      -0.024031715926060803,
      -0.018543412896546707,
      0.024012213154851095,
      -0.014166207371934428,
      0.01965949465022636,
      0.016648743663535127,
      0.02531560958616469,
      0.09211141096933737,
      0.04560147265037632,
      0.014799419512438529,
      -0.046911720830155115,
      -0.001965858485680513,
      -0.021978843239907824,
      0.0471433387455527,
      -0.015383339482475073,
      -0.02138827097632164,
      -0.11242886700241472,
      0.06646350974425334,
      0.003534369343637968,
      -0.023751281606874525,
      0.06989833486800996,
      -0.010567544211401181,
      0.073498271680401,
      0.010851276430134752,
      -0.0766256921803184,
      0.03239756059513641,
      -0.02156978313049566,
      -0.020031564772705717,
      0.052451037221261834,
      -0.009816626742639648,
      -0.035835891382931986,
      -0.08199515212954844,
      0.07735071170502587,
      -0.0015795312391104362,
      0.01959325645699645,
      -0.0008868275753080128,
      -0.042396443193514405,
      -0.053656327811383,
      0.01169158687276129,
      0.026631420716375996,
      -0.020363216950518386,
      -0.02768254344581452,
      -0.04509501143393794,
      0.05858333730721138,
      0.08341737527328398,
      0.015750499873808485,
      0.024881728179805378,
      -0.11578833931832795,
      0.07714241642807804,
      -0.015686055734064345,
      0.08463543781570007,
      0.026436273318924754,
      0.04180913818381277,
      -0.05888515388800526,
      -0.0037323707642192526,
      0.037492800439360194,
      0.06356667154937362,
      0.13705584192983825,
      -0.01374594111783255,
      0.014216617100279416,
      0.03635744756339232,
      0.055108715554672616,
      0.03695978869552905,
      0.0033710658971999687,
      -0.03653311763435022,
      -0.021677833060626678,
      0.057197744198876015,
      -0.061831416491357635,
      -0.0149453782522898,
      -0.0003235786601488881,
      0.045150561102318125,
      -0.035666163145750884,
      0.08547958413908378,
      -0.05411232264091961,
      0.07638419754804243,
      0.023398462999061186,
      -0.1557081721146233,
      0.0560693881643265,
      0.017319036168999623,
      0.05257834851108251,
      0.004119769149896138,
      0.011790372894408683,
      -0.0649425065562255,
      0.0358533887887873,
      -0.0820402684132234,
      -0.10339993409786762,
      -0.05086113748419464,
      -0.07831851779675439,
      -0.05747052519687972,
      0.015794100053028406,
      -0.052534930881620305,
      -0.03967918577147855,
      0.036300587273711424,
      0.01685772134644658,
      0.008989701506270388,
      -0.027929474565693196,
      -0.008924012473898664,
      0.0032489202446675278,
      -0.04538359907152543,
      0.021070888616487413,
      0.032967091024032905,
      0.03331473938141622,
      0.06326339652411589,
      -0.015783686990172727,
      -0.003364186346250975,
      0.05368487559210473,
      0.07441267645824928,
      -0.06864768744540449,
      -0.05308697681335839,
      0.02379307339450756,
      0.033547538488704516,
      -0.018344613678667708,
      0.004418940141489147,
      -0.027076087592683484,
      0.011160581343843333,
      -0.04805063914586233,
      -0.03376515441224202,
      0.0027473580127871026,
      -0.016977474680339413,
      -0.007052786080375187,
      0.027919153009951264,
      0.081523963259918,
      0.07909349387331979,
      -0.10002814533842834,
      -0.004489367036299526,
      0.034350290439600875,
      0.0006988480704660083,
      -0.020698200026987485,
      -0.006308650056618833,
      -0.044443626910018845,
      0.08254898592554827,
      -0.042702541324263536,
      -0.036166265478725375,
      0.05018070926783492,
      0.07742598277451754,
      -0.059817913278720596,
      0.03735306341276505,
      0.039338674937993846,
      -0.02727058357751793,
      0.08051169189863863,
      0.05576464105872899,
      -0.01789644304344377,
      0.05929767065608586,
      0.010207459814103653,
      -0.015490484579701766,
      -0.033225037087094934,
      0.006714027702916825,
      -0.021636522735618117,
      -0.02171460853191613,
      0.054454878374377735,
      -0.007011401511859014,
      0.029067579597380853,
      -0.0030759475420204336,
      -0.00352502277910404,
      -0.06424034485988211,
      0.03895289632678931,
      0.01593685601323303,
      0.0694307116489203,
      -0.019553442895523278,
      -0.07613116608974481,
      0.038300434294280684,
      -0.02585815540591224,
      -0.03761308357615775,
      0.0015363599212174688,
      0.015661709442398204,
      0.031974049866370986,
      0.005201312691037351,
      0.029676194617345688,
      -0.033952864553535786,
      -0.009575153230383302,
      -0.011995851177572781,
      -0.028570041504809213,
      -0.04403334302458032,
      -0.04960400081451956,
      0.013130515389217718,
      0.019373508817343597,
      0.032514473670567375,
      -0.04055222178135153,
      0.03842995416897335,
      -0.04145430302997501,
      0.030870480720246805,
      0.015088534760846284,
      -0.015036011023078624,
      -0.010009014102024826,
      -0.001990441629602264,
      0.047482453528171896,
      -0.037028868149661956,
      -0.01065241899716383,
      -0.01363165610678225,
      0.0572143271044993,
      0.1298721136831541,
      0.0574827596573416,
      -0.027892266256747723,
      -0.04763447845469094,
      -0.03720707069342354,
      0.004351506716973168,
      -0.0733568377344408,
      -0.03998858394886865,
      0.07067490338848988,
      -0.014177676346683404,
      -0.04906936618861043,
      0.002525571510546981,
      -0.0057611896825891405,
      -0.0031188674723056976,
      -0.15683311170545514,
      0.05458045273574046,
      -0.0216185224136168,
      0.1220722959014575,
      -0.02194092491082499,
      0.0757133414998077,
      -0.002251131741760963,
      0.05777065745210707,
      -0.043279616093757904,
      0.04981565981334309,
      -0.0658183362657588,
      0.004638432993863151,
      -0.014351477285339606,
      0.009165588918321444,
      0.00618989142116306,
      -0.029183837993344144,
      -0.07916115963373992,
      0.049635633257621756,
      0.025729738978955037,
      0.08611671606128127,
      0.014488042424943823,
      0.034348721942829195,
      -0.0414044212844138,
      0.02745487769633546,
      0.024544382191374198,
      0.0018169700692719309,
      -0.023521484501304712,
      0.006587948785763227,
      0.007828101396515897,
      -0.11972824272587278,
      -0.002067595075847138,
      0.07868892266843494,
      -0.02800824924747508,
      -0.003780226175685628,
      -0.006214043318630819,
      -0.030052419913736486,
      -0.03982465831945259,
      0.006243672896609829,
      -0.026345651174909557,
      -0.06499100076121445,
      -0.0728841041389477,
      -0.03365727834155186,
      -0.09266745676190154,
      0.05662637851296946,
      -0.009345672334934474,
      -0.09239851862183249,
      0.03770148781044415,
      0.08397666671464729,
      0.0018169700692719309,
      -0.07063310957384467,
      -0.03373059422356337,
      0.05191811097802953,
      0.11249966163166132,
      0.010480876248221858,
      0.05731628777243411,
      0.00748496612380264,
      0.05560112944942495,
      0.09401366876318319,
      -0.0048216479638409195,
      -0.006562690807572715,
      0.0047073157732974834,
      0.005296939928847545,
      0.01877751274919507,
      -0.04797119915457657,
      0.037291687690392206,
      -0.008096439051265008,
      -0.0023730020784755485,
      -0.015955382678686715,
      0.042003374023882566,
      -0.12084522309601921,
      -0.06850486597964343,
      -0.0685338579776356,
      0.028177191324084767,
      0.013997901583758892,
      -0.05624651085379698,
      -0.03163894219385989,
      0.06479370496159077,
      -0.002086643301140427,
      0.05994473600343269,
      0.026065125860745896,
      0.01282547184008062,
      -0.02404880526900182,
      -0.060867609229346864,
      -0.013076602105696838,
      -0.0034616874336263832,
      -0.020203286777518526,
      -0.02076715358331208,
      0.07945472322307419,
      -0.04160210872464662,
      0.04263957814849298,
      0.024328722250958525,
      0.01706409368512457,
      0.010618475473739324,
      0.029292795802739066,
      -0.0055917836988811035,
      -0.027029860918261477,
      -0.04190752695130108,
      0.07416980996914063,
      -0.02559143336115003,
      -0.025070303825314635,
      0.04117530280185226,
      0.02847957541175736,
      -0.016755253782455553,
      -0.05868556256601607,
      -0.030776299668807437,
      0.00018484821241531027,
      0.11526054936557094,
      -0.018212266676320844,
      0.045861306985259344,
      -0.027773052654292286,
      -0.017465459854570438,
      -0.0643947145715029,
      0.14067237014130027,
      -0.04466868703868977,
      -0.0017374490431894662,
      0.03567529877047691,
      -0.003737675790050787,
      -0.07900303382963449,
      0.09570157410739842,
      -0.07472478277507727,
      -0.02364741494538229,
      -0.05848200435002019,
      -0.07416844296806539,
      -0.013691426865610853,
      0.033348666971217175,
      0.040878078928786615,
      0.04582072756509839,
      -0.05304255728829766,
      -0.1024283881404897,
      -0.04229452348443503,
      0.02672115332288787,
      -0.05591261977815368,
      0.004024328755976091,
      -0.05230107534154327,
      -0.015256268574036395,
      -0.0649741487326066,
      -0.061290050842525035,
      -0.02756418516760699,
      0.06174957514568072,
      0.07470051221245479,
      0.1322526392444987,
      -0.01623802339224518,
      0.09101363963845348,
      0.02904471211435079,
      0.07171898069384404,
      -0.04128468118923292,
      -0.023774079609399198,
      -0.01963048805731774,
      0.017680647620128363,
      -0.005276024217102173,
      0.005370443420333149,
      0.02742105436405443,
      -0.007250409685337784,
      -0.06513780330786813,
      0.05344676278647769,
      0.02699052478099111,
      0.09331555968745686,
      -0.05886307995304515,
      0.09151054951289321,
      -0.02341584553078086,
      0.029064005155967212,
      -0.10300510571841569,
      0.03549693485933198,
      0.01600440405338595,
      -0.08278083745414416,
      0.05566489851113884,
      0.04794758461519326,
      0.027773418548416903,
      0.10930405952134771,
      -0.014101259614130914,
      -0.026773268493310083,
      0.002303975729027015,
      -0.08615578378348636,
      -0.0024542222060297187,
      0.04441847943092231,
      -0.007385120220270986,
      0.022147093065637648,
      -0.027615922514976788,
      0.058178353841403366,
      0.01189281966516019,
      0.006174229296214386,
      0.04955759310879959,
      0.0303041489668144,
      0.03749962331000736,
      -0.05832897030549781,
      -0.00986598238799841,
      -0.018922230562676064,
      -0.054268532078661814,
      -0.04497639800963873,
      0.03513076247010944,
      0.054761000131947395,
      -0.08132302942923199,
      -0.06797332911487138,
      0.01954119059678072,
      0.01600993111799432,
      -0.018852799522171754,
      0.0011114607472183572,
      -0.1297185285096888,
      -0.01165879834783394,
      -0.024777854229999324,
      -0.010766309508748607,
      -0.0100340534075757,
      -0.07021441275912294,
      -0.017126340344398572,
      -0.031723550688166555,
      -0.09389312850058666,
      -0.08504306048853368,
      -0.08955729936144614,
      -0.07138424127246688,
      -0.023892041202348665,
      0.05528908650843524,
      0.07393068949947794,
      0.024615993818312077,
      0.026372326907632526,
      -0.024199105942359064,
      0.07591250490981094,
      -0.05235396598863722,
      0.029855111075286326,
      -0.04996036434770448,
      -0.021230863673279605,
      -0.05699785319367961,
      -0.02332674852901527,
      -0.027143957893204014,
      -0.018317370244993903,
      0.04647702090205681,
      -0.028564818231084123,
      0.011335709206657324,
      -0.004680143839297659,
      0.08724911633300099,
      0.06259733746911554,
      -0.0638540082389998,
      0.01323368695450137,
      0.01696929217426418,
      -0.006540882518365786,
      -0.004360757035555243,
      0.008336723898217728,
      -0.022851263064111647,
      0.022490257814147416,
      -0.012745567670604153,
      -0.04623470322084283,
      -0.031171317452685424,
      -0.012203466781093832,
      -0.060980561282557,
      -0.03012161357747998,
      -0.026123312744698243,
      -0.031486333755764304,
      -0.026456881628472796,
      -0.0005106367742517951,
      -0.07620397288860935,
      -0.05183553672871552,
      -0.024796192950455494,
      0.07048174493691303,
      -0.04624945026562879,
      0.017983889403871408,
      -0.1114168038468633,
      -0.0578144025390123,
      0.10031627121859905,
      0.015591368021165787,
      -0.03302046719062404,
      -0.045248299172047035,
      0.05512434338030636,
      -0.0432757546161594,
      0.0019181049655012275,
      -0.04238495539867141,
      0.0018169700692719309,
      0.01505652996467917,
      -0.028302587877119218,
      -0.0667293093701251,
      0.040159155539048384,
      0.014390265703023018,
      -0.02678439510729129,
      -0.02926667318333952,
      0.022230378585778955,
      -0.009044252292599508,
      0.026358673910710596,
      -0.08000143477163892,
      -0.0063281702989299434,
      -0.032732814850815126,
      -0.0004111981540328274,
      0.0763317639022578,
      0.09861656984108438,
      -0.038868582785227625,
      0.03529695408106814,
      -0.05493483169912531,
      -0.10635155564871406,
      -0.05005520132498228,
      -0.0033020784125884378,
      -0.05234563058260118,
      0.02287973734681592,
      0.0881647022836166,
      0.0850050718624736,
      -0.04393046144548912,
      0.09323477586790377,
      0.020031730567336713,
      -0.008365966648882782,
      0.026534568517825704,
      -0.04242432515851386,
      0.052476553007963306,
      -0.0870921330514712,
      -0.063054327977705,
      0.04077433644286117,
      -0.019559218533887684,
      -0.04288926739308511,
      -0.0060134251775243895,
      0.07704206439275783,
      -0.033090317024969916,
      0.019862812279776276,
      -0.007885189209852253,
      0.046743938049245315,
      -0.0759688221821584,
      0.05484897155194447,
      0.009634816259419102,
      0.010190898741903572,
      0.0051547820994059385,
      -0.008177298228483064,
      0.021815282155430802,
      -0.008776552812701548,
      -0.046607884059056776,
      0.0466898542667464,
      0.05004793987678067,
      -0.004671406858471564,
      0.026577680698069282,
      0.02451232922675051,
      0.033029110263489515,
      0.04355997269552084,
      0.04600141355643358,
      0.00031478094398180225,
      -0.005693460926178713,
      0.07797704073282447,
      -0.05146615809104026,
      0.008097069356792327,
      0.012241002737195798,
      0.07138376779964807,
      0.025328794922558552,
      -0.037515086544402575,
      -0.03898414732524706,
      0.02754631250070859,
      0.045828751404612324,
      -0.003653047563599388,
      -0.007976388893994884,
      -0.07345872391796097,
      -0.05019536865330381,
      -0.034114441399652334,
      0.00035316556301507153,
      -0.01221423963298481,
      0.16658990527339843,
      -0.03462817057557135,
      0.048031053902803544,
      -0.07763737146768958,
      -0.021985679979128085,
      0.027799751243012413,
      0.009164145315636057,
      0.010653131605524932,
      0.011534782474466541,
      -0.06572867347559576,
      -0.031253666261440785,
      0.045841899117816436,
      -0.015748781860368967,
      -0.0053679807469821815,
      0.03209043597283744,
      -0.02101715483160518,
      0.04974818921696425,
      -0.02698112396377818,
      -0.04390861536042683,
      0.09630438700639575,
      0.0453461451805243,
      -0.04657500521909387,
      0.03640352412751376,
      0.014665339612421249,
      0.012880628056910948,
      -0.01371275966129429,
      0.09771108902617213,
      0.0005918739599075791,
      0.0018484607379795702,
      0.0035765537676448467,
      -0.04940021660309944,
      -0.03072999421925788,
      0.025742477193693266,
      -0.036857051296237085,
      0.06607782644479931,
      0.006312596168409182,
      0.001471732543035507,
      0.0025204508012618694,
      0.0411600864448408,
      0.054415689116812174,
      -0.02112143484673179,
      -0.04880535747287487,
      -0.016927540561859012,
      -0.02676519911189697,
      -0.025809189344940392,
      0.03549715773553681,
      -0.023031553301884708,
      0.05132698514449526,
      0.05627959709039275,
      0.0656074250386195,
      -0.0017085901235602676,
      0.08668096477462635,
      -0.12676040586498882,
      -0.020162275108310965,
      -0.09285768071854107,
      -0.030237665669605476,
      0.053610523594336434,
      -0.058280408122520805,
      -0.03140309581829774,
      0.10949817878317598,
      0.024568766875462333,
      -0.037565170770213326,
      -0.08173063705929386,
      -0.007787580039003028,
      0.10223657977509627,
      0.08283657370055025,
      -0.004799651031139637,
      -0.07467663483731089,
      0.01295017683919656,
      0.023402444621774685,
      0.055746400592382554,
      0.007132136066465516,
      0.028761184349700375,
      -0.010927927461659291,
      -0.08391164812067115,
      -0.03439168648140206,
      -0.059719710340989614,
      -0.04386114947654776,
      0.03579734863356707,
      -0.06706728969722281,
      -0.0015002293699560398,
      -0.053427951636913856,
      0.016258360991710255,
      0.008890947123987409,
      0.04112484479811762,
      -0.06425401747359973,
      0.04786199334247035,
      0.06850592246659673,
      -0.05115934554647351,
      0.020252482179705232,
      -0.062002144563986256,
      0.03646484786121618,
      0.010974691692467602,
      0.00016659070079049984,
      -0.01128834982962046,
      -0.041095624840718915,
      0.05340269131074623,
      0.01643189359753364,
      0.06010421397419201,
      -0.0076200110693101985,
      0.015493171452559757,
      -0.002515591751356948,
      -0.014496045663170918,
      -0.0001778707225607404,
      0.03420956378816226,
      0.007801711418363742,
      -0.03442987494296093,
      0.006785921500360163,
      0.009313288085676994,
      0.014845142560965474,
      0.07976731503976085,
      0.0028472711615428682,
      -0.0773937692338947,
      -0.04122261714052353,
      0.052462501242173484,
      0.08838512751530574,
      0.00023195402313970948,
      0.012109807859798207,
      -0.010074178043013235,
      -0.000984457829361072,
      0.05026479210181564,
      0.03872956497031188,
      -0.04678926974377352,
      0.07015155516352013,
      -0.07309553714932544,
      -0.05871822407244754,
      0.052136302189549726,
      0.03525167042296155,
      0.05429938693281483,
      -0.0228086203001901,
      -0.01606768891523357,
      0.07546570804387934,
      -0.02361562631115366,
      0.008908419464876655,
      0.002165346133974138,
      0.060682539623248065,
      -0.055918995160969286,
      0.015649683850739997,
      -0.03547335379058345,
      0.026178076449937922,
      0.09953248800728787,
      -0.004168512657582605,
      0.009704356805622403,
      -0.026168129464755153,
      0.0025612020276967557,
      0.0026711845013449357,
      0.031181655346283407,
      -0.11166301672773501,
      0.016916400385579903,
      0.03533742733454339,
      -0.005764326482322858,
      -0.024878618338219,
      0.014438294924240444,
      -0.02590059846550314,
      -0.0023438333856561576,
      0.016026734302059194,
      -0.011061771319407995,
      -0.036608300760340995,
      -0.03125460728435015,
      0.01612139140293862,
      -0.05094542534822194,
      0.06991529452363944,
      -0.03672435266557408,
      -0.06827979632914624,
      0.049227870400247606,
      -0.07905730275945216,
      0.01877935915903837,
      0.03257297587133905,
      0.020717048261009587,
      -0.022404405958017567,
      0.049161815247340764,
      -0.05366460188735477,
      -0.0454701337337599,
      0.019269947792422228,
      -0.03861910116752016,
      -0.043369986946100704,
      -0.057534880048579214,
      -0.046300731080666624,
      -0.0011554142933526896,
      0.01316106169376477,
      -0.015045833949524095,
      -0.007365736407521888,
      -0.004445822209263314,
      -0.02776376144632532,
      0.006225172550623685,
      0.0592576561428394,
      -0.030460320475008285,
      0.00797818866162317,
      0.08361377211984793,
      -0.05172913363935447,
      0.13345225859198745,
      0.003615058638952962,
      0.05432085238508732,
      -0.02595479937349527,
      -0.03288159485735195,
      0.03876598446323658,
      0.043856283742572576,
      -0.07576551819939534,
      0.023017895218700284,
      0.14309669534196903,
      -0.03662403140469822,
      0.010796342662506812,
      0.003686625432948023,
      0.02789998155691344,
      -0.009050650253410264,
      -0.03782786539889854,
      -0.06648425823435786,
      -0.014096036952383118,
      0.06600345151187831,
      -0.004187276252036239,
      0.058205927564849186,
      0.05210096672148733,
      0.027677734944885287,
      -0.05674638154277398,
      0.05279748831138951,
      0.026929701742180717,
      -0.058093663374155835,
      0.026606719059932653,
      -0.050117802379092725,
      0.015240391549110952,
      -0.026320462303132185,
      -0.0630783165630669,
      -0.012652757740617656,
      0.002888156826162755,
      -0.05493297498123008,
      0.01891645023386487,
      -0.029007866259861508,
      0.011939414437082492,
      -0.046259663309093015,
      -0.09826676739107332,
      0.03288642498232964,
      -0.015435436441394168,
      -0.06635491934561044,
      -0.13199288248509172,
      0.04066831165199745,
      0.09374660994361597,
      0.00347599852768459,
      0.04064435631182222,
      -0.0010288932338767588,
      0.06225796782709138,
      -0.07515808832963876,
      0.0012757169509856334,
      0.11386139030252063,
      -0.0450535617189058,
      0.04239325377519775,
      0.0003762354569065501,
      0.016679911633864213,
      -0.006062913320998748,
      -0.0480469359218706,
      0.029114530011330988,
      0.027651892257897267,
      0.07771905806040239,
      -8.736287790175899e-05,
      -0.11419788443792599,
      0.069939532166969,
      -0.029827733350394472,
      -0.09778780734062488,
      0.08838301610596781,
      -0.010620961059413115,
      0.0019401151194252434,
      -0.045932414379787616,
      0.01073768437182079,
      -0.06640867331123887,
      0.03552338257351204,
      0.031539389683733904,
      -6.366004007061115e-05,
      0.011873102991744036,
      -0.04078073689997279,
      -0.08057748994450245,
      -0.0044319393428345205,
      0.03422324886247325,
      0.009318872687034126,
      -0.08060437249314346,
      -0.05706005447079741,
      -0.009289890396945062,
      -0.015977089602532937,
      -0.02400054956602153,
      -0.03860238227089545,
      0.07339096115316293,
      0.10557072694282249,
      -0.06385465446495993,
      -0.003780228601177717,
      0.00533172106052321,
      -0.0017374490431894662,
      -0.03802103360716136,
      -0.030034508535694487,
      -0.10062208556356592,
      0.05161161282923709,
      0.03002998752206678,
      0.005966939947049222,
      1.0988816951217183e-05,
      0.10229918533539714,
      -0.06467612896845484,
      0.06968983648742898,
      0.07464224003412245,
      -0.03665204722181228,
      -0.023967999660975032,
      -0.03682192864799689,
      -0.07258794337904476,
      -0.01748835494275026,
      -0.02415678517031848,
      0.04610750198705042,
      -0.01609587056509047,
      0.06338017395399184,
      -0.0070587797101596145,
      0.026311691201443357,
      -0.08475506023425007,
      0.050045654658109125,
      0.01172645964919287,
      0.02176306816498363,
      0.05982236509421225,
      0.012548319725980204,
      -0.05308190369828072,
      0.02636805739799572,
      0.17120185463051044,
      0.06808481832516358,
      -0.030607945824092177,
      -0.026669687208294705,
      -0.058559549661535905,
      -0.03379418236954403,
      0.22594336745051263,
      0.05301212945913817,
      -0.05486251793777405,
      -0.029906476671128245,
      -0.008069485352241354,
      0.023544780059329102,
      -0.008640673504414954,
      0.020580974744845264,
      0.018328926468925495,
      0.011858509918436896,
      0.0560212201381849,
      0.06265808502078128,
      0.034236374892575146,
      -0.04158619739608553,
      -0.044052011523134364,
      -0.0043752394169060925,
      -0.007238200786778998,
      -0.020335698580904497,
      0.03553633688581994,
      -0.10681213560224753,
      -0.030749430657861124,
      0.008511655871759938,
      -0.018454732413895295,
      -0.037988179456554354,
      0.054818354998513875,
      0.023395415190270948,
      0.01189729637481247,
      0.007278314756569732,
      -0.05770658507666297,
      -0.0057528804175154815,
      0.041448415370337784,
      -0.06430028489267965,
      -0.11170964198349494,
      0.0027485212202106465,
      -0.0002783794483592691,
      0.03240236679105178,
      -0.020125700982155496,
      0.005213671388942176,
      -0.06709384789971788,
      -0.12684168939172344,
      -0.025788315358583874,
      0.046795968361817444,
      0.001983973518132355,
      -0.004190027090797861,
      0.01820219155550968,
      0.015654643617048384,
      0.014542967707507024,
      0.010941636785169418,
      -0.04971033616494318,
      0.03758444083594048,
      -0.049896517805309425,
      -0.024905905269602437,
      -0.01553020556249742,
      0.017532370039500925,
      -0.08149657710108248,
      0.035643401586975224,
      0.0678897904637344,
      -0.06300950370150898,
      0.013571895631273128,
      -0.05353779352862986,
      -0.07122920237182467,
      0.024279192124537427,
      0.013689716279497291,
      -0.06055355091479672,
      -0.04532574714942659,
      -0.012876909461574479,
      -0.002231439374640537,
      0.005983686113931691,
      0.02142822205428749,
      -0.03718544934922612,
      0.00923438759420306,
      -0.004539195903676488,
      -0.06798394993482587,
      -0.01272075574665788,
      -0.010800845910449166,
      0.06050988353699564,
      -0.009280261369930265,
      0.05004344380670061,
      -0.01426773810750452,
      0.05451368430127614,
      0.006856506773433254,
      0.048193882083784875,
      -0.034764553599885846,
      -0.07715828535630606,
      0.0994798272073918,
      -0.018015001105460355,
      0.015102923018118039,
      0.0015229088523960436,
      0.002450081345198457,
      -0.026853685381498925,
      0.1045853840569254,
      0.022326868639303537,
      0.05797954395938141,
      0.09914043482749266,
      -0.029965566164947888,
      -0.023161063797327026,
      -0.09584575745215611,
      -0.023729493310129305,
      0.043991066429155505,
      -0.02081997135194187,
      0.04244951203254919,
      -0.08885761126538157,
      -0.03463660890641181,
      -0.01938501301526819,
      -0.047700984388617196,
      0.05515416434848587,
      0.0004142437102499016,
      -0.08046024416291891,
      -0.002835368600870828,
      0.015549002142030265,
      -0.00010778327608706019,
      0.02914885962675827,
      0.0018169700692719309,
      0.054018243551420965,
      0.06894751643972791,
      -0.024383572959622356,
      0.03865886691448109,
      -0.01732278500260843,
      -0.06825003515524726,
      0.02468144782882923,
      0.09293474392391568,
      -0.041455689578113304,
      -0.016478806228433455,
      0.06896288553253335,
      -0.07876571427969359,
      -0.044535390322303414,
      -0.028421744283069723,
      -0.05512975493751893,
      -0.004978879681581546,
      0.006290065307876446,
      0.04936016150098311,
      -0.05181227932722953,
      0.012371494976204689,
      0.04126175711118826,
      0.021479837097150845,
      0.07647259314955814,
      -0.006217003382725883,
      -0.008852575657097721,
      -0.01845219081308944,
      -0.017450118748720947,
      0.10927151631636625,
      -0.0909632628292913,
      -0.007461596560630973,
      0.03476913005802029,
      -0.06503560890910287,
      -0.011712071624238977,
      0.04326638163636901,
      0.014815611916433281,
      -0.08710351226307672,
      0.04698791294570481,
      -0.048217718644229836,
      0.04499062590493954,
      -0.07121062406594225,
      -0.04418106786415285,
      -0.052613070561627874,
      0.03696541924032763,
      0.032622840893432335,
      -0.027473542446861596,
      -0.010606564092556862,
      -0.07720761985019783,
      -0.033800693824817624,
      0.10280308152882019,
      0.05247909288242405,
      -0.0573141276092051,
      -0.09787636136609296,
      -0.031209142533964587,
      0.06640818946222404,
      0.0019470438074855026,
      0.08147877168199967,
      0.012831550009380866,
      0.022720719762279247,
      0.06593641320240708,
      -0.011650180590077656,
      -0.01978390610872472,
      0.038787023731800985,
      -0.049999254877649286,
      0.025197691843168023,
      0.037212867592258336,
      0.050859313363644236,
      0.005376426926899145,
      0.028322690533645747,
      0.05457523422747772,
      -0.007289437064695501,
      0.000948280120620208,
      0.022040579696787174,
      0.014057502618422493,
      0.05171397917592703,
      -0.10493787958421417,
      -0.022118076160096964,
      -0.01976820185161913,
      -0.0930652189936916,
      0.028679300707532406,
      0.018069513061556138,
      0.01577038620144358,
      -0.0028979015317695104,
      -0.10442840938193541,
      0.07606462730718166,
      0.09441595843281544,
      0.015385026954939322,
      -0.06297560865729947,
      0.025732243799880698,
      0.04374612000081999,
      -0.05520345232807635,
      -0.06431768996566381,
      0.02191954700729088,
      -0.008579392229538614,
      0.017762633288807072,
      -0.1016225093739881,
      -0.07880406346586837,
      -0.01956388819996219,
      0.003683460952842599,
      -0.06609087423869117,
      0.07975995709766165,
      0.011261484693746913,
      -0.00904246286618885,
      0.02680226663480191,
      -0.04516643182579398,
      -0.032693394335899385,
      0.08969657768361411,
      0.082751702878935,
      -0.032389294979767135,
      -0.061431897282031266,
      -0.04022945529105035,
      0.013786277823325397,
      0.039905382390225466,
      -0.07260696025870336,
      0.030589958359926575,
      -0.015630797379648922,
      -0.023024828097863492,
      0.04883771685629612,
      0.028182934489104212,
      0.026615417929601592,
      0.03789536183851231,
      -0.05277436077608451,
      -0.024512830498808702,
      0.00475739434054889,
      -0.09674960399681022,
      0.02653939675758096,
      0.0009039687096544994,
      -0.050004870523224144,
      -0.005484130294973919,
      0.022638352318328656,
      0.027141504541216683,
      -0.08500459048829498,
      -0.01638590859343627,
      0.0019820313824230346,
      -0.004792251230151004,
      -0.09686314022326585,
      -0.027064517580100998,
      -0.028711710451292963,
      0.004132639456891825,
      0.04319701032981544,
      -0.004073045576266222,
      -0.0751867211718117,
      -0.01649929030937856,
      0.012251104049265035,
      0.08268361232179146,
      -0.09340807446427617,
      -0.06191657476326487,
      0.032143323025007574,
      -0.007576784049020091,
      0.015527551017656578,
      0.01164881946812418,
      0.0566075763166807,
      -0.019882302409743847,
      0.06634160916441367,
      0.005586386690884618,
      -0.06699019802633253,
      -0.04651154387092609,
      -0.027400116042249886,
      0.02194071343555434,
      -0.000746735105155921,
      -0.03931134618972772,
      -0.018956190849611056,
      -0.006845092926656559,
      -0.03689081254839481,
      -0.066286513255192,
      -0.03869484493484778,
      0.03954811958901119,
      -0.0003751667262165676,
      -0.010400789484852012,
      0.0436190606511365,
      0.012218073952940054,
      -0.05934507102612401,
      -0.033611028581154355,
      -0.03397605579607734,
      -0.08504014745290348,
      -0.04064461879685672,
      0.07722893474073683,
      -0.07840989635026033,
      -0.09391321503940338,
      0.002934870174792976,
      -0.011534753430332377,
      0.011673035883412786,
      0.0071344534054702605,
      -0.003457952849304733,
      -0.051455598141544025,
      -0.05758112089639501,
      0.024138941602269297,
      0.016399847715135894,
      -0.06769171365738515,
      -0.03795155373997034,
      0.004498228590129557,
      -0.061885508641334824,
      0.05868958458407233,
      0.016472336498526176,
      0.05411139462862063,
      -0.014571204222867506,
      0.03366762709503162,
      -0.029801525170847536,
      -0.019333817279993032,
      -0.03102584025582524,
      0.05781694894060499,
      -0.06638329622291782,
      0.00019443852273062486,
      -0.09839137925277278,
      -0.007436810933278573,
      -0.012712774984775976,
      -0.06058656852244861,
      -0.027511755133253813,
      0.047179140085710676,
      0.03482418607626296,
      -0.026052765037529433,
      0.04349949259561757,
      0.005906887667232024,
      0.03549118464402312,
      0.04798619589351346,
      0.055889019808159475,
      0.02874482912179889,
      0.013358193761208987,
      0.03151229109488631,
      -0.04472586046791149,
      0.009765135350067584,
      -0.03286601043178757,
      -0.005869638438694225,
      0.08254743011629029,
      0.09752207903214828,
      0.023321156240111714,
      0.006720207152982075,
      0.06559217791445388,
      0.061055992876967925,
      -0.01852413726721164,
      -0.00840520130055803,
      0.018921930935285127,
      0.0685560306525684,
      0.009319485962051727,
      0.01996302241384913,
      0.07861357527413222,
      0.025247432601577767,
      0.03438529600168446,
      0.07126349923899568,
      -0.06807892618516122,
      -0.009841616237257354,
      0.041165519202524044,
      -0.07802109090125807,
      0.05518649955441492,
      0.04745543835394008,
      0.05398214228267922,
      0.038883534255304615,
      -0.04427670483963753,
      -0.01093420959706152,
      0.14048727765009403,
      0.008214458233683488,
      0.03822321231246717,
      -0.029816287360115514,
      0.06162916468685487,
      -0.02869408580949588,
      -0.0061245623585158785,
      0.04882217381920296,
      0.06026061301912905,
      -0.008315890112238572,
      0.022815327912442368,
      -0.03114605044789047,
      -0.005469038418692141,
      -0.0887616420269454,
      -0.030393801893790293,
      0.009927439884863639,
      -0.04410192310678627,
      0.06340256500561708,
      -0.031898989895017625,
      0.059292845087689026,
      0.005057357864392419,
      0.08049044664291521,
      -0.08753924639449495,
      -0.02351422638625133,
      0.0747337800280279,
      0.0719250097673144,
      -0.025359992359177998,
      -0.05519331608604399,
      -0.04523441134710809,
      -0.04723157124835387,
      -0.03395009339534087,
      -0.03324190631653445,
      -0.04843036291139686,
      -0.028016646844671398,
      -0.07616632742022303,
      0.034559423603272854,
      -0.0015835239412972993,
      -0.005746173259559883,
      -0.025097191159312346,
      0.038011640421258444,
      -0.013389521602929099,
      0.10276594177524266,
      -0.01238928337152827,
      0.01287950294892317,
      -0.10899335731096667,
      0.01355142914794137,
      -0.04764608628134059,
      -0.06639144187234254,
      -0.0022014199399336596,
      0.0657753821669126,
      -0.0019144555750574028,
      -0.010367322577509736,
      0.03633619327540341,
      -0.06780831029591074,
      -0.021087616879659023,
      0.0068981173030167224,
      0.03766078876683998,
      -0.0017374490431894662,
      0.09467463599073958,
      0.03886065842586505,
      -0.006022526981779324,
      0.0252981213532051,
      -0.0051956473245068,
      -0.12798675960229774,
      -0.04898912333633949,
      -0.12693613980732749,
      0.0011205910030700481,
      -0.06388740669848432,
      0.1011658257757673,
      -0.08080447758679624,
      -0.04631900759133122,
      0.03067904700927605,
      -0.02473972958783897,
      -0.03063064514409549,
      -0.009369023883552147,
      0.0018169700692719309,
      -0.0507944482855717,
      0.03147780394718513,
      0.01928100662465139,
      0.020489880037757525,
      -0.03621676624823905,
      -0.14686604906495335,
      0.05873789552147815,
      0.04755172907750094,
      -0.043992502051665244,
      -0.06346254344677328,
      -0.13588400725907804,
      -0.08609111468899673,
      0.09215769350986933,
      0.07260287467833187,
      -0.015839958672667492,
      -0.0017374490431894662,
      -0.015577873072419719,
      0.022259662067206833,
      -0.07407329050701607,
      0.031159818279667347,
      0.03181637923477663,
      0.05993803622676185,
      0.003927334628432908,
      -0.0003659477231947968,
      0.032780838868636884,
      0.08249312355910242,
      0.047999469498056155,
      0.06191055386600665,
      0.049503394656434496,
      -0.0057989494681992305,
      -0.04327741391615797,
      0.0038028885393640503,
      -0.06090196019511312,
      0.04191877627274983,
      0.04122233494454434,
      0.007428980911229113,
      -0.0470799916728426,
      0.01050915990008295,
      -0.04755169821725583,
      -0.01128560551600821,
      0.013181917353296501,
      0.08265165694599573,
      -0.0659352822480554,
      0.02218767093924168,
      -0.043974742420820626,
      0.06711113003694233,
      0.10828885458275804,
      0.04255057334457467,
      -0.006527977021717758,
      0.04550326117048342,
      0.002288053775973714,
      -0.02621997419324985,
      0.032838457243584744,
      -0.0047302089440566285,
      -0.0004544219718436841,
      0.07358378562350364,
      0.02685498736305065,
      -0.0005525112703651861,
      -0.006440476464182862,
      -0.016548216317172112,
      -0.06836081988028786,
      0.01932687034005513,
      -0.05760105763711056,
      -0.027761392025040996,
      -0.03408254459638574,
      0.001619199915786247,
      -0.05384584503834377,
      0.057189062239125885,
      -0.03930263458893196,
      -0.009774894689717765,
      -0.02012895590185558,
      -0.025890516639431618,
      -0.043737626621051816,
      0.017411043331714008,
      0.026950837542601497,
      0.035814050368782914,
      -0.03885270673942193,
      0.041787290283132224,
      0.022101491843490265,
      0.03994843923381933,
      -0.0895360358261717,
      0.07483684845497557,
      -0.06468857395145658,
      0.030307262053424544,
      -0.06804052148283456,
      -0.10280459875046805,
      -0.01324518819155285,
      0.056874200518617087,
      -0.009292274862752425,
      -0.007739504099473677,
      0.05876852664517527,
      0.06053296857156745,
      -0.011062159653211445,
      -0.030738346997360833,
      -0.01414296191669691,
      0.002176785592056498,
      -0.05732660404285018,
      -0.013519746507183895,
      -0.0065332939253469145,
      0.10878582850948458,
      0.027892619449501894,
      0.05646507733646836,
      -0.0610271193483803,
      -0.048284435132365605,
      0.15956673952405703,
      -0.050133522670275835,
      0.010358983428385364,
      0.009219578260857966,
      0.015091686949395097,
      0.055925134835267384,
      -0.01644535533396063,
      -0.018589688525119278,
      -0.03989667446114679,
      -0.043097174903167855,
      -0.05020127892581742,
      0.010695200991264826,
      0.05242390256438125,
      0.010981898122438888,
      -0.020888703629640074,
      -0.023720975512568625,
      0.021433875995046703,
      0.0024662807880802056,
      0.018085424125807263,
      -0.004322041868698801,
      0.02818561093484915,
      0.10604212335296224,
      0.041062175388084245,
      0.01519525876085901,
      -0.012357972630668885,
      -0.018560102344133928,
      -0.05733639893313848,
      0.0052604272459582406,
      0.011828766320909087,
      -0.0107799270381718,
      -0.01934060635186165,
      -0.03817885871378286,
      0.07118523209934172,
      -0.05747880157278915,
      0.01838777196952298,
      0.027391126564040923,
      -0.09283341405036459,
      0.044142583656499125,
      -0.052497100482899545,
      0.03176193232262115,
      0.010360682113746156,
      0.04878299857386634,
      -0.00034904089344231417,
      0.027606363616712756,
      0.042789838029984414,
      -0.07799794779449674,
      0.05705439996220624,
      -0.024594861432477466,
      -0.007502511730443905,
      0.016331655162755192,
      0.01626190255254794,
      0.003628885972539839,
      0.0033078034400884494,
      -0.04729042076004431,
      0.03038231682411735,
      -0.017336878488096303,
      -0.05697059542426372,
      -0.0603110791110003,
      0.014249333278118786,
      -0.005437774035289704,
      -0.05978673043337317,
      0.015008639355238622,
      -0.038707595313946075,
      0.006055242594713042,
      0.005918286493821946,
      0.07447771132242734,
      0.03201362427042641,
      -0.0991873412280182,
      -0.03350771804837607,
      0.030488369668329518,
      0.02059875085377865,
      0.018035470580653575,
      -0.02792332015348814,
      0.0039763980990308884,
      -0.01053990646578566,
      -0.004300810726715106,
      0.02313272886574858,
      0.09513243071307562,
      -0.009937528874459943,
      -0.00752206586357297,
      0.022720852084411106,
      0.08592381713268615,
      0.029615846716888217,
      0.025883071344638887,
      -0.04129390634675354,
      -0.039521727316136304,
      0.0714993327449027,
      0.08077312203455846,
      0.01499094599221795,
      -0.0201113884711539,
      0.0009461270056607013,
      0.05793388462218525,
      0.03861771018378374,
      0.0281448083757425,
      -0.04300260875570529,
      -0.04432785445702339,
      0.003788593890890344,
      0.02189320965271093,
      0.008324416680103605,
      -0.04769604155738719,
      -0.059353609390245705,
      0.11641854162380501,
      -6.022434470167985e-05,
      -0.04887525321776719,
      0.03167868079897348,
      0.023840924003913563,
      0.05929256851897523,
      -0.0012972402859937249,
      0.01678551878868925,
      -0.06896791207470886,
      0.0018169700692719309,
      -0.07370006575022016,
      0.007154419906438853,
      0.10898380115367227,
      -0.03771331301693182,
      -0.010425061454555856,
      -0.011618314729584236,
      -0.04100682318506962,
      0.0259106262325189,
      0.008514739213311329,
      -0.006963101894795625,
      -0.01571283500257684,
      -0.015947800302971243,
      -0.009518212299394108,
      0.014294021963444902,
      -0.004861466679852806,
      0.05634863847546155,
      0.00605074170413587,
      -0.030933244804908392,
      0.04322670443298471,
      0.06084735228304409,
      0.0800449058005738,
      -0.04042030710613221,
      0.016034647217565864,
      0.043682053918695125,
      -0.09286560181201069,
      0.026882088450682323,
      0.007213782102890893,
      -0.05935356351548437,
      -0.04029659059526953,
      -0.01918608624575349,
      -0.03894750219450045,
      0.0018169700692719309,
      0.01190697656492534,
      -0.033302015124059316,
      -0.054686459725776466,
      -0.02673912442095991,
      -0.026754816214721734,
      -0.05847023903966831,
      0.002535695529926509,
      -0.1089345967047525,
      -0.002196721666094993,
      -0.029646593875567662,
      0.06330391813871404,
      0.06809193843397779,
      0.034751065342835605,
      -0.05091788850556376,
      -0.02517888166345574,
      0.014935380931310803,
      0.021955789526092236,
      -0.022086666022501412,
      0.02238382026994894,
      -0.061867356621480914,
      -0.03136086880028392,
      -0.0999386302923716,
      0.04452285247039105,
      -0.01812214818819195,
      -0.0061347941301165,
      -0.017359593682385974,
      0.0821481711405667,
      0.026626844917618304,
      -0.030985983005004016,
      0.049445116521337755,
      0.03879887263905404,
      -0.005047371824220783,
      0.004268820236816734,
      -0.05578939153397542,
      -0.023494322380614892,
      0.015357761486220749,
      -0.015870401207599753,
      0.05809159180706507,
      0.011780663563206189,
      0.040850857708287176,
      -0.06687726705006526,
      -0.024924784150063755,
      -0.024734734539596712,
      -0.06441222397556565,
      -0.08212661841962514,
      0.05177897492299408,
      -0.013772016033839065,
      -0.004472966243975914,
      -0.06778212356422948,
      -0.05648483634724455,
      -0.12072514838030622,
      0.03187251265782626,
      0.03652358513149526,
      0.022016307582461786,
      -0.009708033142573742,
      -0.0049047232785142,
      -0.048056460596296306,
      -0.09355998895431128,
      0.02538545666543823,
      -0.014694321570501418,
      0.12596997029260257,
      0.033953169998544024,
      -0.02278687556732853,
      0.04050878629941614,
      0.023233280868953744,
      0.004137036424301968,
      0.08041703184650385,
      -0.06399561347601437,
      -0.03388960954218406,
      -0.029454587770635227,
      -0.055918517916972915,
      0.09666449189883874,
      -0.025442713572667135,
      0.0484371155167715,
      0.04731826787839086,
      0.0024408312640137246,
      0.05473468156955271,
      0.03262434189534149,
      -0.02397723502487303,
      0.013773789265941886,
      -0.03327867015859493,
      0.01324863424943442,
      -0.00027902410915532584,
      0.012307150439533683,
      0.02099979187384063,
      -0.013115979915504212,
      -0.027255885343450782,
      0.013717050446863634,
      0.007693395501777407,
      0.013969293456306636,
      -0.036221270541516484,
      0.08508242093257905,
      0.031817078101021884,
      0.042472803681706174,
      0.003917997969111507,
      -0.06960413111463334,
      -0.0020714263361252413,
      -0.012122106242290567,
      0.07356829645631417,
      -0.02079242131850406,
      0.035988029892978717,
      0.09994942796102053,
      0.006838500359295998,
      -0.030911148862335352,
      -0.039770332017812444,
      -0.033936417505455674,
      -0.013881342379958788,
      -0.009333006928946378,
      0.017933587109373258,
      0.036469371828914035,
      -0.0017374490431894662,
      0.049012727424002187,
      0.010078383629079438,
      0.10507412696143857,
      -0.011625224948622552,
      0.0028639645498846657,
      0.09536143046495037,
      0.004569252674309859,
      -0.07198275637685879,
      0.057322159199093635,
      0.000363283665710599,
      0.0030514323326900203,
      0.12538533714974942,
      -0.0145225892793073,
      0.010976090553902123,
      0.0071134646603990435,
      -0.03377154280313893,
      0.060117395531708286,
      -0.039719030153268345,
      -0.08715428660027619,
      -0.006323886485984351,
      0.01366166373448784,
      -0.023494543504909326,
      -0.0017642147482993548,
      0.10575416296830213,
      0.004815652116085487,
      0.02861275010102395,
      -0.015673306796716666,
      -0.056454694291209036,
      -0.0777605588167751,
      -0.0575562388235226,
      0.0028180134562821673,
      0.0272554489480244,
      -0.04535444269619123,
      0.034334456056059635,
      -0.021794790254442437,
      0.004884005634082822,
      0.0023503198997664714,
      -0.0012544876621695007,
      -0.08913123741532594,
      0.007422068557743901,
      -0.0406218540052155,
      -0.08216826248858253,
      -0.06235789718129098,
      -0.04012143785691777,
      0.022682016280728832,
      0.03617077841542279,
      0.021293766477361538,
      0.04177728007039918,
      -0.012439218076898972,
      0.07443867965227867,
      0.032250377552742716,
      0.0011896560161087978,
      -0.03233743966492165,
      0.03161629074367091,
      0.04306300604924171,
      0.008578267876080957,
      0.01418272817522414,
      -0.021012372633559123,
      -0.08936577709634867,
      -0.04171753187668724,
      0.019557435316995584,
      -0.008141762849535269,
      0.012906978475948145,
      -0.0800842353481461,
      0.03404890966706688,
      -0.011395913230513845,
      0.0388300257213779,
      -0.04070467881402594,
      0.011827479269137992,
      0.010892679001654196,
      -0.047214367443521324,
      0.09454320858726319,
      -0.028553875459493273,
      -0.01805833644606667,
      0.0687524808300742,
      0.0025941695138259947,
      -0.07567286793685388,
      0.09944272660761125,
      0.001878445442601464,
      -0.04912506061719487,
      -0.0645939900931176,
      0.03307516913546004,
      -0.026895682889024317,
      0.009317075026730598,
      0.0013615639888831803,
      -0.017518406111215693,
      -0.019027224968554274,
      -0.06561452082459296,
      -0.0028893974794019436,
      -0.10091778657153813,
      -0.08856597979343685,
      0.026662528788557845,
      0.029864476873037147,
      0.12318632253210718,
      0.028552216367202617,
      0.013802618337487103,
      -0.06382427228231707,
      0.034850547194683314,
      -0.05881854108635021,
      -0.005765586672834232,
      0.04222015688102679,
      -0.010183089012110022,
      -0.026692927716419908,
      0.019053949059372903,
      -0.05002298966114701,
      0.0035421131019289093,
      0.07609552530806486,
      0.06132661426237714,
      -0.028659278899291957,
      0.06043048907922657,
      0.0015634004951417169,
      -0.018535985512432834,
      0.04281410680523923,
      0.01104947506921344,
      -0.12691124571478854,
      0.01757996223891312,
      -0.0390437885447437,
      0.04062051481743177,
      -0.00821408194354743,
      -0.0017374490431894662,
      -0.0517768670807761,
      0.04469951798409749,
      0.0018169700692719309,
      0.021933635202728147,
      0.015731772583332155,
      0.03239449715637122,
      -0.018178874283326835,
      -0.005542952062788983,
      0.057212162368945337,
      -0.07331796724160237,
      0.050935770149165255,
      0.04260177158163888,
      -0.010871236443962269,
      -0.035988702233812266,
      -0.014845764218141348,
      -0.02372389301636684,
      -0.035931425775501194,
      0.01603124113435697,
      0.07698940827626462,
      -0.019688307927911954,
      0.07252694666087031,
      -0.040726359641099066,
      -0.050799416376215635,
      -0.04205086277349626,
      0.10010790202321945,
      -0.009182777556044403,
      -0.07514411688057096,
      -0.06694249873688173,
      -0.00223998554255254,
      0.022568839434436924,
      0.041400970612463873,
      -0.006798817758688127,
      -0.043671717997517526,
      -0.050122459183525966,
      -0.01473201855406694,
      -0.01659995930953199,
      -0.05811662906299645,
      0.04356269593973315,
      -0.05005827006756946,
      -0.04736678175698986,
      -0.02278345470973395,
      0.005203944330491175,
      0.0008216224648877508,
      -0.038927101129282396,
      -0.016662741117515253,
      -0.014445955196494432,
      0.06844143564543996,
      0.08609832653981705,
      -0.03049273595697447,
      0.011286685801584425,
      -0.0396069239430231,
      0.0034926778371835057,
      -0.05436269174624767,
      0.09088160223888107,
      0.01261896178774857,
      -0.02323519890212058,
      -0.054280045948618516,
      -0.047579771721314126,
      0.1159919038523641,
      0.07765236586454538,
      -0.13103900063090454,
      -0.07311545280937101,
      -0.04594377615764844,
      -0.05359001905437537,
      0.005628477435942927,
      -0.03007500786676046,
      0.0075893466298877724,
      -0.04372562011114201,
      -0.02038100317502388,
      -0.003680159879362846,
      -0.020366350715594884,
      -0.011872405211973414,
      -0.001404627718739782,
      0.009086094134106017,
      0.06534871357373781,
      0.010845727068081514,
      -0.02358369745498698,
      0.05476613676545097,
      0.03609709906701453,
      0.09291675601019232,
      -0.10417683747070887,
      -0.06651083337436897,
      0.037164513408570396,
      0.02952274908991716,
      0.0007440006122406933,
      0.0872425937119491,
      0.03301554060918359,
      0.014015771678693984,
      0.009036039738404703,
      0.08845428752198993,
      -1.2706357598142385e-05,
      0.005329281614852248,
      -0.021020600659401843,
      0.022442675505367334,
      0.031552617463620695,
      0.01652897714443474,
      0.010746692786302699,
      -0.07931674421551936,
      0.04203729803746163,
      0.05679216663528739,
      -0.012169109614901173,
      0.008466419066747001,
      -0.01003716433474623,
      0.05652883284747621,
      -0.048733798087178565,
      -0.04492784703295905,
      -0.0017374490431894662,
      -0.029205581490158117,
      -0.07898260917068098,
      -0.0008830555584082588,
      0.029001189495222048,
      -0.034311192877730955,
      0.014012507225424426,
      -0.010765197465416038,
      -0.022131490402631068,
      -0.09282415362962054,
      -0.01894403815113369,
      -0.07716772579131126,
      0.058592377224289637,
      -0.03014447953111749,
      0.04954006793292993,
      -0.09012954759157715,
      0.00958840272905602,
      -0.1567613067809938,
      -0.005866750367884305,
      0.02839693800908916,
      0.08181649624318504,
      -0.00824923758555225,
      -0.014692610687923232,
      0.01228037681898073,
      0.007939670269562594,
      -0.023658283765839533,
      0.029008420223308268,
      -0.05727430013266743,
      -0.012567271848627418,
      -0.05912243718699121,
      0.018771453314133515,
      -0.023658090748382345,
      -0.035854403064243305,
      0.028242264409227183,
      0.02675251219193817,
      0.04984506159379736,
      -0.0017374490431894662,
      0.0012014603175502165,
      0.08919354958130998,
      0.06502368808455346,
      0.009288368817732266,
      -0.026842679954113456,
      -0.032665482750332,
      0.037905561611455425,
      0.001798073156455768,
      -0.007854954408898242,
      0.02734364985071312,
      -0.06929430983902193,
      0.046004840069032445,
      -0.0643704656879797,
      0.014006414320208119,
      -0.0010476494771764666,
      -0.013738883559401525,
      0.05969616367751351,
      0.02301987290158215,
      -0.027021792862833797,
      -0.035020447779318405,
      0.04611529289779543,
      0.05546232650598323,
      -0.039522717459601855,
      -0.05732591992908484,
      0.0025936895549538573,
      -0.010338360731163648,
      0.010517992601022584,
      -0.003993727583478254,
      0.026337071366642817,
      0.029731480791248485,
      -0.05066435918839352,
      -0.03687600491379469,
      -0.0601621853246909,
      -0.06860707074011745,
      -0.011225880416685496,
      0.07949707031209806,
      -0.014319449151801826,
      0.0009329837220754346,
      0.028831716698981543,
      0.0355402907200874,
      -0.0017374490431894662,
      0.06990943733999672,
      -0.07030895720206781,
      -0.0385003173683268,
      -0.07896725662332281,
      0.00917953262321729,
      0.03642420959583973,
      -0.013132275397207242,
      0.018530367456679502,
      0.0016417249251098618,
      -0.03309830515222601,
      0.09930269205024626,
      0.019834807647444535,
      -0.003544727896342049,
      0.07252249613599653,
      0.038127069660117995,
      -0.0779640400725564,
      0.04659267654531777,
      0.03333554185493724,
      0.02624853773338424,
      -0.05672687239274487,
      0.05873827642248613,
      -0.054964885250339775,
      -0.0811408576181674,
      0.03483087739005486,
      0.050035479618114595,
      -0.04310512253677166,
      -0.09645780681749422,
      -0.09584576612273672,
      -0.08559622991972078,
      0.039645702892898003,
      0.04508974577569676,
      -0.01947996873465499,
      0.02289701921955214,
      0.11194716048815831,
      -0.019168247870661494,
      0.0026313275283877517,
      -0.04839989760580781,
      0.03589517148028836,
      0.04557467539156166,
      0.011170284553475166,
      0.01639853075439382,
      0.03445434600153242,
      0.06383926037811477,
      -0.1350402732581519,
      -0.03255260881185558,
      -0.036592748568441774,
      0.043606106986844445,
      -0.06017566752959716,
      -0.046081228915290644,
      -0.029950157189802224,
      0.024065911534067105,
      -0.0683750041944341,
      -0.043890770875976585,
      -0.0752440964493567,
      0.04399062446910283,
      -0.006044501205562432,
      -0.012459809353222948,
      0.07978687010239204,
      0.057111639193063675,
      -0.05898350094253783,
      0.012781774241049405,
      -0.05372502970580099,
      -0.046469584763950175,
      0.003838065309160236,
      -0.04173199621240571,
      0.062188510946878,
      -0.11326632453701627,
      0.009219422567699665,
      -0.0554172733368046,
      0.006803429814554242,
      0.0802570662260049,
      -0.026376079269108347,
      0.004974271225869686,
      0.004442106360895302,
      0.003667171064055694,
      0.02716396661633072,
      -0.022216748740123013,
      -0.04776467182689133,
      0.012246840950571934,
      -0.023441016336343042,
      0.06983778742434797,
      0.07360277539472183,
      -0.08481319435231063,
      0.028796386209108783,
      -0.027760937210602955,
      0.02092616548749671,
      0.008680726935779232,
      0.003109113759943884,
      -0.0661740249765356,
      -0.03176415581587438,
      0.0321238013206053,
      0.09474878653992323,
      -0.0028882182313651555,
      -0.015092976271504386,
      0.043993189509555525,
      0.008287669603589549,
      0.026613073315139672,
      0.040317410590571076,
      0.052601234710403386,
      0.04581388529286888,
      -0.08484223888275653,
      -0.002794343910685468,
      0.026249452278019846,
      0.006916637037261888,
      0.024219475048702626,
      -0.014067459972264572,
      -0.07553236423553153,
      -0.01917722792172974,
      0.004900853406180944,
      0.0198416718104644,
      -0.018408492774474178,
      -0.05120357653342784,
      -0.03805643426726812,
      0.013473021236106076,
      -0.032300879571073915,
      -0.02245938766050357,
      -0.028491133770272462,
      0.014265202993114987,
      0.06247787978656219,
      0.04665573400485471,
      -0.014826421600577636,
      -0.035026268409802545,
      -0.059373867348104244,
      -0.06545508505829971,
      -0.026239666340519645,
      0.040951060171191635,
      0.008621276015570839,
      -0.052032257003873005,
      -0.03693166705641543,
      0.016984271958131816,
      -0.09218318132281376,
      0.04844565766451151,
      -0.013878467105277247,
      0.022100188016114575,
      0.008463465500789266,
      -0.033005440313305455,
      0.02094550526570402,
      0.009027309207119865,
      -0.07654608815446497,
      -0.050200002886710025,
      0.050574373737287834,
      0.002609788236146553,
      -0.04157628415840407,
      -0.04074696511430497,
      0.040940730288965964,
      0.032284844798467376,
      0.03616140209750572,
      -0.007548954192849731,
      -0.021665649056454468,
      -0.053095479407366655,
      -0.00981858546307527,
      -0.048019581846640326,
      0.03994490393703187,
      0.00037488527764860055,
      0.00012253544249029766,
      -0.07583546525557808,
      -0.058152577236152796,
      0.03063775736009134,
      0.06185828341037742,
      0.011747637295941474,
      -0.05557436463881822,
      -0.0012267085776192506,
      0.09087897756383675,
      -0.008635281577035985,
      0.008984700012488193,
      0.017220274447047695,
      0.004798883203875436,
      -0.04339246362991709,
      0.07792241636740374,
      0.02511671138805986,
      0.059537415312471684,
      -0.08648877536154417,
      -0.053111332828046955,
      0.042514772033182914,
      0.03057867841911836,
      -0.07020727693726342,
      -0.004425165087930222,
      -0.019535119505803167,
      -0.02986484426970712,
      -0.014533290665930586,
      -0.03244349227813361,
      -0.029469257627058938,
      -0.06118988640995078,
      0.05147405567734682,
      -0.019423697610794943,
      -0.04534698884785599,
      -0.13340367288505445,
      -0.00953796036686137,
      -0.030952232540739557,
      0.0027170486671613463,
      0.05783448817562806,
      -0.13011591412104803,
      0.03854072893817574,
      0.003322222954589772,
      -0.11046352873878872,
      -0.03917835727841886,
      -0.08643209617834034,
      0.02189868365236572,
      0.08056901397249738,
      -6.506723860316512e-05,
      -0.024619403240346626,
      -0.009815481194863179,
      0.047063373351469324,
      0.015759841857367767,
      0.027943669488319986,
      0.037171969599252466,
      0.01570472050795788,
      -0.009055681901668534,
      -0.014880338265648486,
      -0.02371029043119704,
      -0.011929537334809268,
      -0.03262825518315246,
      -0.0007272414119774029,
      0.049892135821382605,
      0.023252722721581676,
      -0.027280142988867745,
      -0.04494335092350316,
      -0.06305054587101361,
      0.05170832940764539,
      0.026410784756715835,
      -0.015721535802923594,
      0.022543971684604727,
      0.02422215489123427,
      0.08133478026553488,
      -0.05482810475178045,
      -0.013278244943614301,
      -0.04704799428728223,
      0.03974526561058867,
      0.07656054713063665,
      0.01387163635633521,
      0.0014861168274977862,
      -0.004157640465531669,
      0.02287190797426236,
      0.03671510639295002,
      0.04901560174631832,
      -0.002181322556440309,
      -0.008858703280240065,
      -0.013223265496566175,
      0.00671212935147515,
      -0.020428124064211878,
      0.0377789098874345,
      0.03288282299820015,
      0.02891868710022647,
      -0.010458813917346061,
      0.048910285954548036,
      0.007284105123800961,
      -0.08539356572373945,
      0.06138641699811923,
      -0.040910801132738706,
      -0.004129960218912757,
      -0.005281067932195833,
      0.011891690480223219,
      -0.01164993836464228,
      -0.046781643538412354,
      0.024251049795047844,
      0.02011640984700751,
      0.07000798737416768,
      0.05487980312281766,
      -0.013563094941701541,
      -0.02284180924634845,
      -0.042593024773930836,
      0.018918093482828375,
      -0.008925660129706492,
      -0.0048066181869853035,
      -0.022330971893629505,
      0.014416159662368451,
      -0.062057594326391144,
      -0.03084917941150822,
      -0.08786539922141362,
      -0.049920648574294915,
      0.0576781359453786,
      -0.0037807732043133677,
      -0.01404552499063244,
      0.019918244677064465,
      -0.03783118762347062,
      0.021521161226945883,
      0.04593239299961914,
      -0.007136734625334916,
      -0.02026745457257126,
      0.001064260331555855,
      -0.10079743713836468,
      -0.02822635716614076,
      0.002812813116684441,
      -0.023502025444907638,
      0.02679892078684518,
      -0.025265634500857254,
      0.07945136416898159,
      0.022357355095071113,
      0.02705376913358515,
      0.03344748381571229,
      0.09344142408805786,
      -0.009789373987348176,
      -0.01315593244955723,
      -0.028280812322855405,
      0.021656249490850307,
      -0.02963725762275734,
      -0.11360744675373871,
      0.022413323802044305,
      0.014078591568581322,
      0.07149193412450236,
      0.06931294778840436,
      -0.01770268264962291,
      0.05143688899721592,
      0.017436231808822103,
      -0.06300443752223306,
      -0.004542614710865993,
      0.025760814956306135,
      -0.07619856319715554,
      -0.007136782248188857,
      -0.0685803479023723,
      -0.11621675018118495,
      0.04048077797448619,
      0.03134665779298802,
      0.04226560515348618,
      0.023616850812050536,
      -0.01664451154277368,
      0.05435446779580981,
      -0.04239308131368308,
      -0.031049017998909065,
      -0.05530176585985889,
      0.04036950152260223,
      -0.029146957869258364,
      0.008788574868571734,
      -0.07107719168159195,
      -0.0694525295909401,
      -0.02990627514467363,
      -0.022886613984859788,
      0.05635883071240368,
      0.07079174065628974,
      0.014967468198920775,
      0.05694679187320096,
      -0.05145493222648294,
      -0.014812091821380729,
      -0.04565233672529758,
      0.020479761032639328,
      -0.06131910137428018,
      -0.026913127414834953,
      -0.008465798542554602,
      0.005223857747364538,
      0.1281599569510039,
      -0.059532849907644264,
      -0.11375437610738749,
      -0.02448158968273488,
      0.030418622063398824,
      -0.015611163144541482,
      0.0162156898655929,
      0.038957586306322844,
      0.017447435415472664,
      -0.012750537259617483,
      -0.011102697831672732,
      -0.004567059492169226,
      -0.02941147814992558,
      -0.002397764403722646,
      -0.005689030998653462,
      -0.05316218218557222,
      -0.021747313131824854,
      0.062467861520873434,
      0.03492521932906658,
      -0.06429164774435504,
      0.03818634062689344,
      -0.004506567417926004,
      0.028499009660352483,
      0.004022061337040011,
      -0.00523373644045523,
      0.05494622937125814,
      0.03951226569831787,
      0.027420301455743742,
      -0.010650235705008115,
      0.04556824986614375,
      0.02315267363680679,
      0.0010452780588964393,
      -0.016889542142724243,
      0.041605993459036206,
      -0.009275314857040015,
      0.03576184949247276,
      0.054763323062226414,
      0.07029671261941778,
      -0.009231596568435167,
      -0.051226250867519356,
      0.10711276672953932,
      0.01582868828946413,
      0.01404048344917778,
      -0.01893208203340729,
      -0.037037427711864024,
      -0.048246010593073214,
      -0.038751961391998234,
      -0.13557293243521565,
      0.032999309995589636,
      0.050412923213393544,
      -0.060556799450003196,
      0.013891346344864632,
      0.011725253154594266,
      -0.02461092563754111,
      -0.047430576280278684,
      0.01017176922522421,
      -0.04957115005596504,
      0.018998069207687256,
      0.03476253666593816,
      0.0592314200934039,
      -0.057096265350985706,
      0.02332281900451166,
      0.03667617271082321,
      -0.0364786240071369,
      -0.012051413250781299,
      -0.014829651484446678,
      -0.03838433805945279,
      0.014840186262828516,
      0.032902390183533664,
      -0.011117554088620469,
      0.07116847637055003,
      -0.022058599466342088,
      0.007067281686732218,
      -0.07998640852204168,
      -0.049996570822250085,
      -0.006767537692680363,
      -0.029224840987165594,
      -0.029363339468946113,
      -0.013516568123284264,
      -0.03513164456381499,
      0.02703755531711513,
      -0.07351870773247926,
      -0.019618602020132908,
      0.0500606672033733,
      -0.04090375365264311,
      0.08103715515493862,
      -0.0018123132642743917,
      -0.0032251144388772243,
      0.02856527892219039,
      -0.05539579269786396,
      -0.04964970837114345,
      -0.023573652317544585,
      0.02828431100744758,
      0.04372493373714592,
      -0.021338242771121382,
      0.05516942092463944,
      0.11314729476000554,
      -0.07620403769678653,
      0.0018169700692719309,
      -0.026139879887386624,
      0.0759549760106647,
      0.046731966130735776,
      0.06315669351433235,
      0.03867047625008558,
      -0.011880717013112848,
      0.047931779530704426,
      0.051775065636541835,
      0.02102019835478987,
      0.047020878920831316,
      -0.010422928140401758,
      -0.1187617283055948,
      0.011712308858724759,
      0.00774527884271195,
      0.01151375617701008,
      -0.057789942938264824,
      0.0227980496300566,
      0.0053560991020759705,
      0.02165632474248313,
      -0.025185382857947063,
      0.010285879294725516,
      0.06892643958361486,
      0.09323017193916633,
      0.009323159353997532,
      -0.0017374490431894662,
      0.013508445473402018,
      -0.02499995326549774,
      0.03319587915543752,
      0.0027378878580789317,
      -0.10634147299010392,
      0.029581233697637273,
      -0.004343846923062596,
      0.04037471978572529,
      0.02473356951470688,
      -0.0001041123158712086,
      -0.04897685884910142,
      -0.02035127495632538,
      0.010023230806940472,
      -0.034406800654508095,
      -0.0413883980517133,
      0.05620824848941244,
      0.036831625236055064,
      0.042819808491832756,
      -0.0451012709165237,
      -0.00875063398379399,
      0.02276030534449909,
      0.07490874794609828,
      -0.005697106876876977,
      0.07502031990823435,
      -0.02363239411112949,
      0.07545235362680089,
      0.041264446343139013,
      0.03235683842569877,
      -0.10144633071759553,
      0.007868931019699234,
      0.013420333481909108,
      -0.000536201384694212,
      -0.00832425812356715,
      -0.0023433730863003893,
      0.02142428100756852,
      0.06566096036510949,
      -0.021289506828466604,
      0.03797337601638413,
      0.032209363836888265,
      -0.0644795245499731,
      -0.08520324333800494,
      -0.03332083831273127,
      0.042644946321167734,
      -0.031392401548020345,
      -0.08723705429680506,
      0.01559530486036384,
      -0.011526776845671776,
      0.07881007862969866,
      -0.0017374490431894662,
      0.05427564172060525,
      0.04145283218397781,
      0.0002380728114174817,
      -0.01074370572531979,
      -0.06660314221657615,
      0.061536420901237954,
      -0.06104660909247692,
      -0.08471730952459428,
      -8.706788927490442e-06,
      0.09222138300750606,
      -0.08227008618248347,
      -0.013720699235305283,
      0.02412292241126251,
      -0.07528150232085505,
      0.06432103378986072,
      -0.020703769722246485,
      -0.020489641037010113,
      0.04754939175814395,
      -0.1126729525111938,
      -0.02608524082105338,
      0.046472428897530164,
      -0.05441419668146966,
      -0.04623947960411212,
      -0.0867001797204635,
      -0.02944641755630419,
      -0.012742876497904027,
      0.10557012334590947,
      0.025459983803615232,
      -0.049193472442955716,
      -0.06902756129994535,
      -0.08779584134253614,
      -0.014329124968504033,
      -0.021534923943014917,
      -0.004480093730171864,
      -0.017951240468457606,
      -0.07668223305835126,
      -0.03438006649394657,
      -0.03757546282489993,
      0.04429012741516429,
      -0.030345228577996795,
      0.0010623615106337314,
      -0.04286244217664871,
      0.04337108451299436,
      0.042600729223792856,
      -0.04696894967359648,
      0.05428677298173521,
      -0.07973487978641082,
      -0.02259112939312084,
      0.03233040282706467,
      0.011523890834505883,
      0.020503066829008793,
      0.059822728181197785,
      0.045071261045222716,
      -0.003714342839428266,
      -0.026742698057423426,
      0.03080291756189696,
      0.016810833794409247,
      -0.021636441132935384,
      0.012499357090248036,
      -0.06449069579470709,
      0.008352824276482719,
      0.02144756056723494,
      -0.002526212528293175,
      -0.0168028480572172,
      0.011350499312616152,
      -0.03205454425763923,
      0.02637216609368162,
      0.012482541078158552,
      -0.07805148012474357,
      -0.0199620765497258,
      -0.02212686120597873,
      0.026824410125941767,
      0.010874599669043262,
      0.012455764631676278,
      0.05092849674633851,
      0.0515458266981096,
      0.022625670057273943,
      -0.1044543546165195,
      -0.014482959739082816,
      0.030646603964330547,
      0.04504687715642613,
      -0.015564278377452652,
      -0.013845180269902106,
      0.09602921607292589,
      -0.02425584219982422,
      0.018900587925614755,
      0.01932142782140907,
      -0.008612431616001717,
      -0.05892610382432092,
      0.08130716995802265,
      -0.021924751716491872,
      0.003486352725583923,
      0.024186949990138217,
      -0.0019523855826741952,
      -0.0810553572314172,
      0.06003402254659218,
      0.09062812253696052,
      0.05965089391807448,
      0.0018169700692719309,
      -0.016724073763936444,
      -0.006725569735225215,
      -0.03360409634928641,
      -0.021261930570264924,
      0.004490272773318179,
      -0.02958006549548196,
      -0.008257862488675351,
      -0.03482270765204585,
      -0.01695703214472832,
      0.05202960526017115,
      0.039209945482637606,
      -0.007510160484212566,
      -0.001001216508563567,
      -0.011060684504437514,
      -0.032002498425058326,
      0.0709786794269954,
      -0.03606738789164901,
      -0.042310791266428976,
      0.008473229886356546,
      -0.03933271198097397,
      0.04451321759710474,
      0.027384569014193255,
      -0.10680157668103256,
      0.0772555099649396,
      0.04353460544867806,
      0.014444749008427758,
      -0.0005236673556815475,
      -0.026226551256266235,
      -0.057285568075111294,
      -0.02246505387272982,
      0.04302118132380432,
      -0.0008737977829191128,
      -0.011879503793245106,
      -0.06807810176523678,
      -0.02277249556932293,
      -0.09466350982545614,
      0.0751962424893059,
      -0.08095588127947377,
      -0.03464818966012499,
      -0.03011669730583187,
      0.021825221461104955,
      -0.018045876481422838,
      -0.012001892337101229,
      -0.04538942446794451,
      -0.009569945103695385,
      0.04196379786314524,
      -0.041322758113146174,
      0.013048624056644892,
      -0.033089368597967565,
      -0.0316087068901051,
      -0.1000287790955562,
      -0.007698817316866858,
      0.0150589380373984,
      0.03958537696611858,
      0.003935550477735486,
      -0.012499183077843116,
      -0.03597509893231089,
      0.008574919538832148,
      -0.005776968728921167,
      -0.004560548953931189,
      0.03066914601057527,
      0.07327646482089044,
      0.06936432018579632,
      0.06100306063152194,
      -0.026900506230493698,
      -0.029124100639104547,
      -0.031272359978145446,
      0.022309996038798605,
      0.05450238989339826,
      -0.056756187608176266,
      0.045211361853205026,
      -0.01083495885755767,
      0.021744959306916507,
      -0.1078886088216489,
      -0.03481197777922301,
      -0.10659591256172843,
      0.033477671329733796,
      0.02181489871571481,
      0.034011646075097234,
      -0.07875723861003806,
      -0.04577170618490227,
      0.06932833172978181,
      0.06343454995637712,
      -0.051478933184664746,
      0.033263128251120024,
      0.06043717561898421,
      -0.06272018544789286,
      -0.0854354323313956,
      -0.062496215204011205,
      -0.05329448821217476,
      -0.053811448359695487,
      -0.03004859293649978,
      0.011309716138703175,
      0.08605109304840106,
      0.03732728942065724,
      -0.008647359556456525,
      0.04459708444376509,
      -0.025800112587413587,
      -0.012298353768577174,
      -0.04903035569035333,
      0.048892020516338806,
      -0.0340507770199486,
      -0.02242556745852458,
      0.0023708977818673645,
      0.09146325548741795,
      0.008803930610605316,
      -0.028967094413562294,
      -0.007906833890421915,
      0.03204445983135975,
      -0.0436053394156542,
      0.037610944897039866,
      0.0677144197494419,
      0.06768463812120697,
      0.038785352771626834,
      -0.03664833797893687,
      -0.010381175163499286,
      0.07871461543866089,
      0.045617189001162725,
      0.012658615216103033,
      0.020381772515990517,
      -0.03741602858098021,
      -0.006009448462468946,
      -0.033063457426281875,
      0.004084278110683423,
      0.07690396163710522,
      -0.03227510224172113,
      0.03537923884590106,
      0.04781344716079361,
      -0.023984597745969838,
      0.0027153990654203283,
      -0.0167970875358146,
      0.014944101116359167,
      0.04569515583096458,
      -0.014179059900470413,
      -0.1381993214581348,
      0.08767161415766571,
      0.06526092126418971,
      0.029367661571691184,
      -0.06751547220781623,
      0.005480241589902257,
      -0.03842694837709358,
      -0.004116090091901455,
      -0.004492226668065429,
      -0.014419817532866646,
      -0.040548356632435535,
      -0.07520125491887793,
      -0.02680164743980595,
      0.01833506451616702,
      0.05453714004170981,
      -0.03156366940355136,
      -0.011206631641636933,
      -0.004466531439749338,
      0.014658961182798217,
      0.027723796346978878,
      -0.08958189759631736,
      -0.0437181161225463,
      -0.032442186918276245,
      0.0341660490125741,
      -0.0032466315536555366,
      -0.02590180237651747,
      0.007761311810531439,
      0.018682681814650763,
      0.008014688520620669,
      0.01399287460683747,
      -0.005314281345792618,
      -0.07802335572450314,
      -0.006127905163264126,
      0.019045183956344507,
      0.02935469796358662,
      -0.021592436897185426,
      -0.01975185577604765,
      -0.10529572554142205,
      -0.02267747075143755,
      -0.021028773487863552,
      -0.028123904538905994,
      -0.09513785753217212,
      -0.025359046166900226,
      0.09903116122943371,
      -0.0016985973075291459,
      0.022456763192664996,
      0.024640075121567146,
      -0.03488294552634504,
      -0.04398862247648044,
      0.03758158235307884,
      -0.005165181338263888,
      0.06646734602913774,
      -0.006513768364250718,
      0.00452799498753256,
      0.01902937362990256,
      0.02657766867595015,
      -0.10089139911435285,
      -0.0008007230217311968,
      0.05580146709027853,
      0.04584274847745869,
      0.0006400484311897666,
      0.017490761373716645,
      0.009056118970556705,
      0.05318252103017044,
      -0.004735963455575284,
      0.10535757275801483,
      -0.06389529493596037,
      -0.027798740310825836,
      0.05674610869924635,
      -0.03066435277321728,
      0.08989692884207384,
      0.036378709107723464,
      0.024654690321424515,
      0.05837008672620307,
      -0.1375576818078603,
      0.02942809056147765,
      0.019025891807986098,
      -0.028022317393466875,
      0.0525255144345377,
      -0.04237409113441692,
      -0.03493382466971455,
      -0.01066562184588409,
      0.049716590174945646,
      -0.13676402063348445,
      -0.05885061709416516,
      -0.0270203270699731,
      -0.011326707934518026,
      -0.04547706233344605,
      0.002262129277238496,
      -0.027006632842922467,
      -0.05671713466125753,
      -0.01750224193203049,
      -0.0318300865441592,
      -0.0644136568258715,
      0.013415702982428139,
      0.05860390956923299,
      -0.05458277517473888,
      0.08547855438332021,
      -0.028763572261728258,
      0.020408369115720183,
      0.1237371337322782,
      -0.02152943230700652,
      0.024802696135998496,
      0.0010352801346122916,
      0.05650882116550786,
      -0.011974150745281825,
      0.05373243859864028,
      0.009631340252906885,
      -0.014604594127325515,
      -0.02511087574398258,
      0.012295175539367754,
      0.00463569024225966,
      0.005865525878228944,
      0.03780505617749665,
      -0.026082036668234873,
      0.08090903436302022,
      0.021708256175791658,
      -0.00045886285056533527,
      -0.08206754966608214,
      -0.02145612026341247,
      0.01852109335686687,
      0.04195599495047627,
      0.05834373668174892,
      -0.04526077288952527,
      -0.030775987132578203,
      -0.015772013074166837,
      0.026528757938779835,
      -0.05875395917367919,
      0.14698814622236137,
      -0.02487944205682804,
      0.04323509470714078,
      0.011743142657899828,
      0.0718023813926379,
      -0.017673219354382985,
      -0.011339052996049731,
      0.04605226184511186,
      0.02079380454063407,
      0.03313376804461888,
      -0.0012935677757344372,
      0.0036175034002335895,
      0.03927837048904066,
      -0.0006558326636196566,
      -0.03480572644661499,
      -0.010224238829521809,
      -0.009034988871616094,
      -0.047709532402766805,
      -0.000585435119838241,
      -0.03529000764117356,
      0.02526145560921757,
      0.04765979727521276,
      0.0034279597245313147,
      0.006739632496357864,
      -0.016298054256695935,
      0.014042485423747786,
      -0.030346676173424167,
      0.07196615896681997,
      0.08638320783358876,
      -0.047505456880473404,
      -0.023566581012290328,
      0.03819258279507641,
      -0.00016504465228850578,
      -0.02506689939625358,
      -0.07395110183748194,
      0.026282742045097042,
      0.041530350626532084,
      -0.021442085551305234,
      0.01181218455298241,
      0.002860783966883796,
      -0.03188587505480173,
      -0.005337923504771719,
      -0.0849565318922293,
      -0.021641919452125864,
      -0.06275122189209419,
      0.0008521597380717545,
      0.03552159221152664,
      0.0062315290458323375,
      -0.0009275811423376692,
      -0.021206049654778084,
      0.04254783189479267,
      -0.05073698582954663,
      -0.043364101944074876,
      0.01330991963834137,
      -0.050745189997874106,
      -0.032667752034279685,
      -0.10484875045633145,
      -0.04297552943600141,
      0.06641999644214677,
      -0.008408792491208607,
      -0.021927228682711634,
      0.023015306068901023,
      -0.01553963474945734,
      -0.045122281994555556,
      -0.023549929785533125,
      0.059087993035115534,
      -0.05146510368677481,
      0.0427039363537021,
      -0.04998311875493051,
      -5.980860318912203e-05,
      -0.054050130147025824,
      -0.020612592146489934,
      -0.02321244427998539,
      0.0029047512566199823,
      0.047061278392499586,
      -0.01104557264481294,
      0.045954612996676344,
      0.038886024895221936,
      0.13644230473311653,
      -0.051975770282044906,
      0.023228715835802157,
      0.00011938958539307317,
      -0.026255549099734536,
      0.03375938428217608,
      0.001716951974144635,
      0.07720026489850909,
      -0.05807748839897144,
      0.09676462126155208,
      -0.05258077315284409,
      0.055936653781967494,
      0.10739870671614768,
      -0.040236764962053286,
      0.03629924523543536,
      0.01599188034300788,
      0.07902263765724198,
      -0.026940432052185995,
      -0.09572586436152129,
      0.018409960737479823,
      -0.07587857439626093,
      -0.043546789502510584,
      -0.022644695145378677,
      -0.03672069705995711,
      -0.08583680590105325,
      0.05008123429523761,
      0.05389744953368962,
      0.01990468814880928,
      0.01915124194803392,
      -0.059246416610481675,
      -0.014512063761372044,
      -0.029713057008184145,
      0.0235536861794672,
      0.02868196039556586,
      0.03397794273203717,
      -0.008660803058999385,
      0.04668010966476929,
      -0.014857878922443613,
      0.0020341428445349715,
      0.05379467503555177,
      -0.07186319924917593,
      0.05911417685807484,
      0.02864211095375743,
      0.006754363281629472,
      0.035394749567830834,
      -0.03822350189963202,
      -0.03859580369197115,
      0.006022755183637382,
      -0.02956199597435846,
      0.007009873593656493,
      0.049876036205714985,
      -0.0017374490431894662,
      0.049337563652540835,
      -0.059586210542018556,
      -0.0244709702118346,
      0.054939090340604194,
      -0.04291718692581803,
      -0.018126944894387015,
      -0.03351233113191143,
      -0.006288661943007263,
      0.08506753697935554,
      0.027676813668579114,
      -0.0185490410181034,
      -0.03719503730004715,
      0.08165815054228291,
      -0.04709236870139682,
      0.046249585874144794,
      -0.026004546790944345,
      0.026257503866318938,
      -0.10276914171623024,
      -0.03695306083040892,
      -0.05198237239968269,
      -0.03096710582814862,
      -0.0340378210655994,
      0.03412166575506554,
      -0.0004095229360519218,
      -0.06419824463386016,
      0.02867716488465952,
      -0.04462916431310707,
      -0.05103541063220706,
      0.012007516302769342,
      0.05063223712020922,
      -0.008515641427903323,
      0.03321153001037784,
      0.021123327090213414,
      -0.052113586617847756,
      -0.025505043083824782,
      -0.03625881652815398,
      -0.0018964186996336591,
      0.0002970014524374724,
      0.04647341484563121,
      0.12428613267131197,
      -0.011256097804448436,
      0.04616149725826074,
      -0.01048505102173591,
      -0.02234422397152154,
      -0.07015247017906702,
      0.01840770524258669,
      0.036915091356734396,
      0.09945741336366096,
      0.020932051850963255,
      0.0018630772007650186,
      -0.0550831853716846,
      -0.04675570055946832,
      0.04078272930161849,
      0.02542715434239203,
      -0.020952461445339948,
      -0.020091250047977204,
      0.015963041362445588,
      -0.058858641221301265,
      0.02256654939658883,
      0.01570164236531402,
      -0.07883023565201375,
      -0.05029126539316507,
      0.04127364129106544,
      -0.0690245658200906,
      0.04950375166969871,
      0.0714191771554584,
      -0.026629978911552873,
      0.07424790217326643,
      0.04726324561402163,
      0.09062361230599619,
      0.04180148985583579,
      0.010078513478696509,
      -0.01630854716226836,
      -0.016490809866751395,
      -0.0051693217312033446,
      -0.035020699857561406,
      -0.11731816466959442,
      -0.036954298525126016,
      -0.026852975582474084,
      0.06976777384170221,
      0.023649211896208867,
      0.0012349787720468228,
      -0.017674765505040983,
      -0.06843994688035801,
      -0.05305646594611866,
      0.008723924512701287,
      -0.11565705260764252,
      -0.03938070191920875,
      0.09822712854925741,
      0.0159147145621448,
      -0.0718585299600824,
      -0.03628765972724179,
      0.03589331493796518,
      0.07825803376924333,
      0.010472011076845816,
      -0.027602917846885875,
      -0.016373966361711605,
      -0.02598282996807927,
      -0.03311648567948132,
      -0.009376252609285788,
      -0.00922360711632334,
      0.004948217247157898,
      -0.011264364086128225,
      0.004993799543423365,
      -0.020095698685624913,
      0.09118603774394603,
      -0.050659076226558575,
      0.01619930232080585,
      0.02741791693203446,
      -0.029179375968095268,
      0.0011216255665824808,
      -0.06372014249195193,
      -0.04383101749036262,
      0.04528721380408389,
      0.02373720880128921,
      0.01978144896382882,
      -0.021564845371132638,
      -0.020636154768972747,
      -0.01923867489199362,
      -0.033339151971024154,
      -0.05379100240049773,
      0.02288268832508719,
      0.005225047680401701,
      -0.0557031843726151,
      -0.041348412735041626,
      -0.08298812616266234,
      0.006324766132871464,
      0.036245598940081766,
      -0.00976921670365479,
      -0.005041159557915946,
      -0.012594264210308828,
      -0.031024492268950498,
      -0.012524583822622783,
      -0.01861087206963941,
      0.03886387254676682,
      -0.006834665210983262,
      0.011392011227346236,
      0.001573110495404673,
      0.013745099141074047,
      -0.04593777442566834,
      0.012407804795996225,
      0.005441751186918211,
      0.04098361638500738,
      0.014811731191576851,
      0.005843582566096744,
      -0.11072650492044951,
      -0.017792807884208596,
      0.0406286497439221,
      0.011363639749973821,
      0.06567378044331157,
      0.013488396021959335,
      0.015211999796264765,
      0.025992859902770254,
      0.010496382777570444,
      -0.06308656141899789,
      -0.046574277362494386,
      -0.018347536213011047,
      -0.11630733899854388,
      -0.1389430983864732,
      0.008492094414226745,
      0.021797267692607515,
      -0.06744788470334946,
      -0.03271050442266344,
      0.03673068499442686,
      -0.00537674157480187,
      -0.051258472781941754,
      0.05699173294614636,
      -0.007538630502453831,
      -0.02648172242182259,
      -0.03399634670282819,
      0.0018169700692719309,
      -0.005985445153610875,
      -0.011485189399599948,
      -0.02442309380716331,
      -0.06541483249120657,
      -0.04617284557792455,
      0.040597876405774086,
      -0.03905397710546311,
      0.028670553260431095,
      0.06363824580131851,
      0.029687697177185106,
      0.047865704432391534,
      0.040759161749537136,
      0.03929084200054876,
      -0.04289256976702373,
      0.00604912686139459,
      -0.00046445578852228567,
      -0.00308353179317378,
      -0.00793997814291815,
      -0.01229779112535132,
      -0.03551201053349403,
      0.04401669837349079,
      -0.10300734258532948,
      -0.0292099227823442,
      -0.008210739785308912,
      -0.003075377121865938,
      -0.013519141309848994,
      0.010940680741786786,
      -0.023440987253650583,
      0.000532046942316803,
      0.06182943623047672,
      0.1400477307054371,
      0.062938806376445,
      0.02922283122575587,
      -0.031885058201928454,
      0.003832662060368993,
      -0.01663991737029721,
      0.03776223583776453,
      0.08885459912590647,
      0.0060084061947170055,
      0.009828616312136699,
      -0.03948402456060647,
      -0.00941569396024469,
      -0.021546312551259574,
      -0.03260221350313681,
      -0.014293477029797172,
      0.030852974623129237,
      0.01597997636364406,
      0.06594101085043928,
      0.021190185071215478,
      0.038454601982843464,
      0.029306015934253526,
      0.03829923544219903,
      0.025306882330203104,
      0.0028697788359179728,
      -0.0053912162780654325,
      -0.03967884658909868,
      0.01786133553029658,
      0.047795540644953,
      -0.0018843020555282637,
      -0.0346496349309051,
      0.03812848862343443,
      -0.04365563612614219,
      -0.04859842528787457,
      0.019889786410724756,
      -0.05312866077243875,
      -0.06124511939899783,
      0.020547275065781294,
      0.006030981642992598,
      -0.045056471186569025,
      0.003886267623599946,
      -0.012659976767969214,
      -0.00968661891736614,
      0.043986105965353406,
      0.034811511403394814,
      -0.04363103737736182,
      -0.007848167672308039,
      0.06478933306870567,
      -0.002776834688161077,
      -0.08407266135593205,
      -0.006201269340722052,
      0.0009752864386105115,
      0.10046252152602302,
      -0.02848502848811439,
      -0.04555940180755992,
      -0.03810245266967602,
      0.03143367221593266,
      -0.030179334974090293,
      -0.021783588907968603,
      0.049970222191980725,
      0.01911239173235301,
      -0.0003201718861970731,
      0.009093902530735328,
      0.05894623670146958,
      0.03009899607390253,
      0.021722090942670174,
      0.018390428238972235,
      0.016714203820912286,
      -0.022336877951963416,
      0.006476671755705965,
      -0.032796807932880465,
      -0.02943278456320075,
      -0.04015836648169103,
      -0.07398858375566172,
      0.08662376990181554,
      -0.0001796550254265538,
      0.05124309981372434,
      -0.07959756088886699,
      0.11415480516100018,
      -0.0015382114405207653,
      0.02016318053712874,
      0.021023152090318326,
      -0.016793638686281608,
      -0.004388524696463651,
      0.020850209359616526,
      0.024763720112934078,
      -0.0011315243895966525,
      0.021657183210305755,
      0.01853316818223038,
      -0.00580644521875298,
      0.052080269462846024,
      0.05518026236996899,
      0.021422296299210608,
      0.08870765863000804,
      -0.06637709533940839,
      0.06878620794266858,
      0.015218919268465287,
      0.04806461012725889,
      0.04298285243756325,
      -0.02623223580222568,
      -0.02820004358745156,
      0.002511977257958225,
      0.0323290002285779,
      0.03191587345684076,
      0.002996559228937898,
      0.001229367038284156,
      0.04161882875689657,
      -0.030593280073056468,
      -0.023976728615540042,
      0.004069041041471528,
      -0.004100729153752534,
      -0.05229346428500963,
      0.012998222985717253,
      -0.046278545076128316,
      -0.05935645793611706,
      -0.011676148067194426,
      0.09978932218302668,
      -0.08593827713788023,
      -0.006495074792096744,
      -0.020076008683845147,
      -0.005572535888588988,
      -0.0876903205136843,
      -0.03816040242752649,
      0.03179556881906558,
      -0.10557642795116334,
      0.03625116132560295,
      -0.045481283500318916,
      -0.027256034788578493,
      -0.022139149895466035,
      -0.020015619643436632,
      0.011461901611622272,
      -0.005332935069123973,
      -0.07900763186763354,
      -0.0007657346207444925,
      -0.11566186754395891,
      -0.049870267522015066,
      0.027067335642802275,
      -0.03337446036187039,
      0.05974666787195499,
      0.03869916879660605,
      -0.017705552742427466,
      -0.02116274785797452,
      0.08078388408171283,
      -0.07780031987105053,
      -0.02471103830341578,
      -0.03405430188115688,
      0.08637268240215304,
      -0.05340280939817103,
      0.037330579013703506,
      0.017895600685933332,
      0.0018169700692719309,
      0.039986761509490376,
      -0.06540934142978684,
      0.08969924389505461,
      0.020470800447211602,
      -0.06600659928575993,
      -0.02050835236922329,
      -0.05672631785909651,
      0.01453021033617108,
      -0.06413896246029589,
      0.011127305404083774,
      -0.06643089394493658,
      0.050689820859822314,
      0.02284361736377862,
      0.0009100726318436678,
      -0.0038190563150935462,
      -0.025821355385582164,
      -0.007810874971900371,
      0.036712480627011025,
      -0.03185659416745891,
      -0.0010885407636231604,
      -0.00844565749191185,
      0.03584641268608615,
      -0.0206406171380756,
      0.019838560767671088,
      0.02204509347468993,
      -0.01712117440918973,
      -0.026325202597098647,
      -0.03653920634910415,
      0.02862609960736649,
      -0.0016123623201304254,
      0.04526013726070517,
      -0.07030440982011137,
      -0.0689970807381052,
      0.060973724313037866,
      -0.04154448747932744,
      0.012919548488212385,
      0.043584704779056446,
      0.0051970821814609465,
      -0.02489442200521272,
      0.07022335304422135,
      -0.042988411685890626,
      -0.020758500121996933,
      -0.03785112116334148,
      0.05478975757656846,
      0.011727967522951823,
      0.014643124858385023,
      -0.049304213550290736,
      0.028105824624281097,
      -0.01050565774392324,
      -0.03699173644665484,
      -0.03492820172191274,
      -0.010870735468782039,
      0.0448864742246366,
      0.0032457040118925476,
      0.15226693495240867,
      0.021895643165878536,
      -0.03457788097314285,
      -0.0653842875372783,
      -0.019230708691939036,
      -0.047559396295869034,
      0.03384393853113375,
      -0.011574417342911278,
      -0.02496565656994356,
      -0.06741072479846959,
      0.005333809543156714,
      -0.038659881080873024,
      -0.007094312498823677,
      0.04748236439999335,
      -0.006123662993906921,
      0.01528482034746062,
      0.0020533173594895035,
      -0.05654757956887755,
      0.030039582480495534,
      -0.03857378529303777,
      -0.07263780710124147,
      -0.01892588141704957,
      -0.020195300122607982,
      -0.06818452657008774,
      -0.05828753469686328,
      0.056694236766230754,
      0.006068533627533215,
      -0.08160206417119312,
      0.01034855356347493,
      -0.033498175062860604,
      0.044589920623939495,
      -0.008967170603346316,
      0.06897340371957714,
      -0.028240968584140616,
      0.049516713187916686,
      0.036151457689651105,
      -0.05439497323206938,
      -0.08316165956268567,
      -0.014727418122109766,
      -0.022107869309113466,
      0.05998970250474585,
      0.0271282592573552,
      -0.025408413921076768,
      -0.010626413946322258,
      -0.015601824322805082,
